<?xml version="1.0"?>
<MethodSetup Method="MLP::MLP">
  <GeneralInfo>
    <Info name="TMVA Release" value="4.1.3 [262403]"/>
    <Info name="ROOT Release" value="5.34/01 [336385]"/>
    <Info name="Creator" value="pilot"/>
    <Info name="Date" value="Mon Aug 26 16:13:15 2013"/>
    <Info name="Host" value="Darwin pb-d-128-141-150-48.cern.ch 12.2.0 Darwin Kernel Version 12.2.0: Sat Aug 25 00:48:52 PDT 2012; root:xnu-2050.18.24~1/RELEASE_X86_64 x86_64"/>
    <Info name="Dir" value="/Users/pilot/ZprimeUpdate"/>
    <Info name="Training events" value="2477"/>
    <Info name="TrainingTime" value="1.63098173e+02"/>
    <Info name="AnalysisType" value="Classification"/>
  </GeneralInfo>
  <Options>
    <Option name="NCycles" modified="Yes">600</Option>
    <Option name="HiddenLayers" modified="Yes">N+5</Option>
    <Option name="NeuronType" modified="Yes">tanh</Option>
    <Option name="RandomSeed" modified="No">1</Option>
    <Option name="EstimatorType" modified="No">MSE</Option>
    <Option name="NeuronInputType" modified="No">sum</Option>
    <Option name="V" modified="Yes">False</Option>
    <Option name="VerbosityLevel" modified="No">Default</Option>
    <Option name="VarTransform" modified="Yes">N</Option>
    <Option name="H" modified="Yes">True</Option>
    <Option name="CreateMVAPdfs" modified="No">False</Option>
    <Option name="IgnoreNegWeightsInTraining" modified="No">False</Option>
    <Option name="TrainingMethod" modified="No">BP</Option>
    <Option name="LearningRate" modified="No">2.000000e-02</Option>
    <Option name="DecayRate" modified="No">1.000000e-02</Option>
    <Option name="TestRate" modified="Yes">5</Option>
    <Option name="EpochMonitoring" modified="No">False</Option>
    <Option name="Sampling" modified="No">1.000000e+00</Option>
    <Option name="SamplingEpoch" modified="No">1.000000e+00</Option>
    <Option name="SamplingImportance" modified="No">1.000000e+00</Option>
    <Option name="SamplingTraining" modified="No">True</Option>
    <Option name="SamplingTesting" modified="No">False</Option>
    <Option name="ResetStep" modified="No">50</Option>
    <Option name="Tau" modified="No">3.000000e+00</Option>
    <Option name="BPMode" modified="No">sequential</Option>
    <Option name="BatchSize" modified="No">-1</Option>
    <Option name="ConvergenceImprove" modified="No">1.000000e-30</Option>
    <Option name="ConvergenceTests" modified="No">-1</Option>
    <Option name="UseRegulator" modified="Yes">False</Option>
    <Option name="UpdateLimit" modified="No">10000</Option>
    <Option name="CalculateErrors" modified="No">False</Option>
    <Option name="WeightRange" modified="No">1.000000e+00</Option>
  </Options>
  <Variables NVar="14">
    <Variable VarIndex="0" Expression="jet1Eta" Label="jet1Eta" Title="jet1Eta" Unit="" Internal="jet1Eta" Type="F" Min="-2.48398638e+00" Max="2.17483139e+00"/>
    <Variable VarIndex="1" Expression="jet2Eta" Label="jet2Eta" Title="jet2Eta" Unit="" Internal="jet2Eta" Type="F" Min="-2.26139927e+00" Max="2.42969418e+00"/>
    <Variable VarIndex="2" Expression="deltaY" Label="deltaY" Title="deltaY" Unit="" Internal="deltaY" Type="F" Min="-3.36899281e+00" Max="3.42456055e+00"/>
    <Variable VarIndex="3" Expression="jet1Mass" Label="jet1Mass" Title="jet1Mass" Unit="" Internal="jet1Mass" Type="F" Min="1.40086884e+02" Max="2.49708252e+02"/>
    <Variable VarIndex="4" Expression="jet2Mass" Label="jet2Mass" Title="jet2Mass" Unit="" Internal="jet2Mass" Type="F" Min="1.40017044e+02" Max="2.49787445e+02"/>
    <Variable VarIndex="5" Expression="jet1BDisc" Label="jet1BDisc" Title="jet1BDisc" Unit="" Internal="jet1BDisc" Type="F" Min="-1.00000000e+00" Max="9.99995649e-01"/>
    <Variable VarIndex="6" Expression="jet2BDisc" Label="jet2BDisc" Title="jet2BDisc" Unit="" Internal="jet2BDisc" Type="F" Min="-1.00000000e+00" Max="9.99989867e-01"/>
    <Variable VarIndex="7" Expression="jet1SubjetMaxBDisc" Label="jet1SubjetMaxBDisc" Title="jet1SubjetMaxBDisc" Unit="" Internal="jet1SubjetMaxBDisc" Type="F" Min="-1.00000000e+00" Max="1.00000000e+00"/>
    <Variable VarIndex="8" Expression="jet2SubjetMaxBDisc" Label="jet2SubjetMaxBDisc" Title="jet2SubjetMaxBDisc" Unit="" Internal="jet2SubjetMaxBDisc" Type="F" Min="1.37641537e-03" Max="1.00000000e+00"/>
    <Variable VarIndex="9" Expression="jet1tau32" Label="jet1tau32" Title="jet1tau32" Unit="" Internal="jet1tau32" Type="F" Min="1.75800711e-01" Max="1.09244704e+00"/>
    <Variable VarIndex="10" Expression="jet2tau32" Label="jet2tau32" Title="jet2tau32" Unit="" Internal="jet2tau32" Type="F" Min="2.26856306e-01" Max="1.13964558e+00"/>
    <Variable VarIndex="11" Expression="jet1Pt" Label="jet1Pt" Title="jet1Pt" Unit="" Internal="jet1Pt" Type="F" Min="4.01311249e+02" Max="1.13366223e+03"/>
    <Variable VarIndex="12" Expression="jet2Pt" Label="jet2Pt" Title="jet2Pt" Unit="" Internal="jet2Pt" Type="F" Min="4.00015900e+02" Max="9.12309326e+02"/>
    <Variable VarIndex="13" Expression="mttMass" Label="mttMass" Title="mttMass" Unit="" Internal="mttMass" Type="F" Min="3.27631134e+02" Max="2.94076099e+03"/>
  </Variables>
  <Spectators NSpec="0"/>
  <Classes NClass="2">
    <Class Name="Signal" Index="0"/>
    <Class Name="Background" Index="1"/>
  </Classes>
  <Transformations NTransformations="1">
    <Transform Name="Normalize">
      <Selection>
        <Input NInputs="14">
          <Input Type="Variable" Label="jet1Eta" Expression="jet1Eta"/>
          <Input Type="Variable" Label="jet2Eta" Expression="jet2Eta"/>
          <Input Type="Variable" Label="deltaY" Expression="deltaY"/>
          <Input Type="Variable" Label="jet1Mass" Expression="jet1Mass"/>
          <Input Type="Variable" Label="jet2Mass" Expression="jet2Mass"/>
          <Input Type="Variable" Label="jet1BDisc" Expression="jet1BDisc"/>
          <Input Type="Variable" Label="jet2BDisc" Expression="jet2BDisc"/>
          <Input Type="Variable" Label="jet1SubjetMaxBDisc" Expression="jet1SubjetMaxBDisc"/>
          <Input Type="Variable" Label="jet2SubjetMaxBDisc" Expression="jet2SubjetMaxBDisc"/>
          <Input Type="Variable" Label="jet1tau32" Expression="jet1tau32"/>
          <Input Type="Variable" Label="jet2tau32" Expression="jet2tau32"/>
          <Input Type="Variable" Label="jet1Pt" Expression="jet1Pt"/>
          <Input Type="Variable" Label="jet2Pt" Expression="jet2Pt"/>
          <Input Type="Variable" Label="mttMass" Expression="mttMass"/>
        </Input>
        <Output NOutputs="14">
          <Output Type="Variable" Label="jet1Eta" Expression="jet1Eta"/>
          <Output Type="Variable" Label="jet2Eta" Expression="jet2Eta"/>
          <Output Type="Variable" Label="deltaY" Expression="deltaY"/>
          <Output Type="Variable" Label="jet1Mass" Expression="jet1Mass"/>
          <Output Type="Variable" Label="jet2Mass" Expression="jet2Mass"/>
          <Output Type="Variable" Label="jet1BDisc" Expression="jet1BDisc"/>
          <Output Type="Variable" Label="jet2BDisc" Expression="jet2BDisc"/>
          <Output Type="Variable" Label="jet1SubjetMaxBDisc" Expression="jet1SubjetMaxBDisc"/>
          <Output Type="Variable" Label="jet2SubjetMaxBDisc" Expression="jet2SubjetMaxBDisc"/>
          <Output Type="Variable" Label="jet1tau32" Expression="jet1tau32"/>
          <Output Type="Variable" Label="jet2tau32" Expression="jet2tau32"/>
          <Output Type="Variable" Label="jet1Pt" Expression="jet1Pt"/>
          <Output Type="Variable" Label="jet2Pt" Expression="jet2Pt"/>
          <Output Type="Variable" Label="mttMass" Expression="mttMass"/>
        </Output>
      </Selection>
      <Class ClassIndex="0">
        <Ranges>
          <Range Index="0" Min="-2.0413980484008789e+00" Max="2.1748313903808594e+00"/>
          <Range Index="1" Min="-2.1801061630249023e+00" Max="2.2874269485473633e+00"/>
          <Range Index="2" Min="-2.6264538764953613e+00" Max="3.4245605468750000e+00"/>
          <Range Index="3" Min="1.4053819274902344e+02" Max="2.4970825195312500e+02"/>
          <Range Index="4" Min="1.4001704406738281e+02" Max="2.4929167175292969e+02"/>
          <Range Index="5" Min="-1.0000000000000000e+00" Max="9.9999564886093140e-01"/>
          <Range Index="6" Min="-1.0000000000000000e+00" Max="9.9998986721038818e-01"/>
          <Range Index="7" Min="2.2231636103242636e-03" Max="1.0000000000000000e+00"/>
          <Range Index="8" Min="6.7809782922267914e-03" Max="1.0000000000000000e+00"/>
          <Range Index="9" Min="1.7580071091651917e-01" Max="1.0372558832168579e+00"/>
          <Range Index="10" Min="2.2685630619525909e-01" Max="1.0145130157470703e+00"/>
          <Range Index="11" Min="4.0131124877929688e+02" Max="1.1336622314453125e+03"/>
          <Range Index="12" Min="4.0001589965820312e+02" Max="8.3763464355468750e+02"/>
          <Range Index="13" Min="7.9380462646484375e+02" Max="2.8421906738281250e+03"/>
        </Ranges>
      </Class>
      <Class ClassIndex="1">
        <Ranges>
          <Range Index="0" Min="-2.4839863777160645e+00" Max="2.1082048416137695e+00"/>
          <Range Index="1" Min="-2.2613992691040039e+00" Max="2.4296941757202148e+00"/>
          <Range Index="2" Min="-3.3689928054809570e+00" Max="3.2962203025817871e+00"/>
          <Range Index="3" Min="1.4008688354492188e+02" Max="2.4940869140625000e+02"/>
          <Range Index="4" Min="1.4021101379394531e+02" Max="2.4978744506835938e+02"/>
          <Range Index="5" Min="-1.0000000000000000e+00" Max="9.9998831748962402e-01"/>
          <Range Index="6" Min="-1.0000000000000000e+00" Max="9.9852973222732544e-01"/>
          <Range Index="7" Min="-1.0000000000000000e+00" Max="9.9998831748962402e-01"/>
          <Range Index="8" Min="1.3764153700321913e-03" Max="9.9999338388442993e-01"/>
          <Range Index="9" Min="3.4686678647994995e-01" Max="1.0924470424652100e+00"/>
          <Range Index="10" Min="3.5900107026100159e-01" Max="1.1396455764770508e+00"/>
          <Range Index="11" Min="4.0159960937500000e+02" Max="9.9909234619140625e+02"/>
          <Range Index="12" Min="4.0013223266601562e+02" Max="9.1230932617187500e+02"/>
          <Range Index="13" Min="3.2763113403320312e+02" Max="2.9407609863281250e+03"/>
        </Ranges>
      </Class>
      <Class ClassIndex="2">
        <Ranges>
          <Range Index="0" Min="-2.4839863777160645e+00" Max="2.1748313903808594e+00"/>
          <Range Index="1" Min="-2.2613992691040039e+00" Max="2.4296941757202148e+00"/>
          <Range Index="2" Min="-3.3689928054809570e+00" Max="3.4245605468750000e+00"/>
          <Range Index="3" Min="1.4008688354492188e+02" Max="2.4970825195312500e+02"/>
          <Range Index="4" Min="1.4001704406738281e+02" Max="2.4978744506835938e+02"/>
          <Range Index="5" Min="-1.0000000000000000e+00" Max="9.9999564886093140e-01"/>
          <Range Index="6" Min="-1.0000000000000000e+00" Max="9.9998986721038818e-01"/>
          <Range Index="7" Min="-1.0000000000000000e+00" Max="1.0000000000000000e+00"/>
          <Range Index="8" Min="1.3764153700321913e-03" Max="1.0000000000000000e+00"/>
          <Range Index="9" Min="1.7580071091651917e-01" Max="1.0924470424652100e+00"/>
          <Range Index="10" Min="2.2685630619525909e-01" Max="1.1396455764770508e+00"/>
          <Range Index="11" Min="4.0131124877929688e+02" Max="1.1336622314453125e+03"/>
          <Range Index="12" Min="4.0001589965820312e+02" Max="9.1230932617187500e+02"/>
          <Range Index="13" Min="3.2763113403320312e+02" Max="2.9407609863281250e+03"/>
        </Ranges>
      </Class>
    </Transform>
  </Transformations>
  <MVAPdfs/>
  <Weights>
    <Layout NLayers="3">
      <Layer Index="0" NNeurons="15">
        <Neuron NSynapses="19">
          -2.6762148907904892e-01 1.8993797827736743e+00 1.2639095781638396e+00 1.3830963218242782e+00 -2.0578095074014140e+00 -1.6638869130920468e+00 -6.2311877219028700e-01 1.8889891579456821e+00 -1.3425281822666468e+00 -1.0196319560869982e+00 -1.4476525467162225e+00 -4.3299546786598531e-01 -1.2724483508463802e+00 -4.1211160266510471e-01 1.0616818096582997e-01 9.9945323510823658e-01 -4.7013214920425422e-01 2.1522784495476888e+00 1.4357454923530158e-01 
        </Neuron>
        <Neuron NSynapses="19">
          1.4051029423282977e+00 -4.9346776603631470e-01 -4.3539860482625153e-01 3.1856892636837325e-01 4.3600389891470241e-02 -1.0613476331869467e+00 -1.6520201648554547e-01 1.5801394265247595e+00 -1.0136443825150352e+00 -1.9002006887360865e+00 1.2541757899383688e-01 6.5427314464005726e-01 1.3962288418198030e+00 -1.4605697806198598e-01 -6.3114166016682272e-01 3.1931868793027318e-01 -4.6594283216963861e-01 -1.1933130600565569e+00 1.7164567623506637e+00 
        </Neuron>
        <Neuron NSynapses="19">
          -1.2078881052198500e+00 1.1636889142672393e+00 1.2829448285197333e+00 9.2011004625860482e-01 1.9105681175289062e+00 1.0273827409612750e+00 -6.9669512213448492e-01 -1.7319121272552374e+00 7.4295287697861023e-01 8.5686795229487689e-02 1.6090835914227415e+00 1.4603186984095713e+00 1.7498388775597813e+00 1.1896244136821876e+00 -9.2215718040837147e-01 1.4709828801480631e+00 -1.7294674302711326e+00 -8.4214946242717259e-01 -1.3290004854170059e+00 
        </Neuron>
        <Neuron NSynapses="19">
          -1.6761161248393865e+00 1.6570897463060197e+00 -4.6792837410546012e-01 -9.9948864547880834e-01 9.5162473505909784e-02 -1.8491224556473454e-01 4.6167495176193707e-01 2.0197268065031690e+00 -3.9547531105716210e-01 5.4979625467985398e-02 -1.0887270865622440e+00 6.6817334524094141e-01 -6.9420165846258064e-01 -5.8764844963629193e-01 -6.0645074990428049e-01 1.4411807618617198e+00 1.3289377231233386e+00 6.2398524968655578e-01 -3.7200615444383606e-01 
        </Neuron>
        <Neuron NSynapses="19">
          -1.8770037162003506e+00 -1.8239538718488089e+00 1.1072926117227282e+00 1.2981847447352804e-01 1.7770951257236871e+00 5.4432687755765075e-01 9.6252985447921113e-01 -6.7835323377921963e-01 -9.7996953199906245e-01 -4.0917435497189464e-01 8.2349944469964875e-01 -1.0647931846602285e+00 -1.2333784824291651e+00 -1.8020060094631398e+00 -2.5956704447266454e-01 -5.1361837552949763e-01 1.7061677845654579e+00 -1.7156950086290332e+00 -8.7872707111976034e-01 
        </Neuron>
        <Neuron NSynapses="19">
          1.7481245971133001e+00 -8.1611424726561388e-01 -1.4341451887644179e+00 -1.5170271082155427e+00 6.1968619126526211e-05 -1.7752992133412402e+00 -1.6721121292111745e+00 7.9252508604041605e-01 1.7051715613267615e+00 -1.1486069336027804e+00 1.6569179542569756e+00 -8.7449823802767612e-01 -8.4700021062258635e-01 3.4369192365140709e-02 6.7315632011251869e-01 -1.5544970521545447e+00 1.1418361413822899e-01 3.9366124823482374e-01 6.0201662320348848e-01 
        </Neuron>
        <Neuron NSynapses="19">
          -1.3914351752292242e+00 1.6861168058532723e+00 4.8712314628702513e-01 -1.0404533333171342e+00 7.4443371983508277e-01 -1.1502488048913273e+00 -1.5909511004905947e+00 1.2082929634820977e-01 -2.7918281254611543e-01 1.8808928171847570e+00 7.4024256599949934e-01 4.0868776704113430e-02 -5.4430264369537473e-01 1.3087228834087750e-01 4.0318902460224085e-02 9.4138367467955109e-01 4.4662494052097143e-02 -1.6320895352682889e+00 7.4733879684431415e-01 
        </Neuron>
        <Neuron NSynapses="19">
          -1.2360387697407591e+00 -1.3472856903855199e-01 8.4901380681950145e-01 1.5213124342773039e+00 -2.1300473858846765e+00 1.1117981121917921e-01 1.7496314664540811e+00 1.4976376872404540e+00 3.7058233973962340e-01 -1.3642795868269615e+00 -6.0049445969482390e-02 -1.3067615663078271e+00 1.5263442209461906e+00 1.2393098198430581e+00 -2.1136353296828458e+00 -5.6929650329633519e-01 -1.8067757814436375e-01 -6.5236048906748012e-01 7.9267546934646582e-01 
        </Neuron>
        <Neuron NSynapses="19">
          1.6773244798644196e+00 1.9747545969218075e-01 -6.3518490711848585e-01 -1.9580944664952560e-01 5.6827845076060102e-01 1.8621831918685774e-01 7.3008895401342344e-01 -1.4307903722950526e+00 1.5653799397289123e+00 7.4558692504502411e-01 1.3379393101513193e-01 4.4438023382710212e-01 7.2161298985371858e-01 -5.4343223750310343e-01 -8.8632231650907101e-01 3.4093962892445262e-01 -9.9296702044239615e-01 -5.2578848489280183e-01 1.1360027429666235e+00 
        </Neuron>
        <Neuron NSynapses="19">
          9.9964284646306256e-01 -2.6361647425876267e-01 1.7538505696580864e+00 2.1943227344735430e+00 -1.7195476358946444e+00 4.1745801600430676e-01 6.1206097041033363e-03 1.9913805594127348e-01 -1.7882466185725832e+00 -1.5037638694508630e+00 1.0728575906872329e+00 1.7457056397346842e+00 -1.8042351305240556e+00 -3.0086349415183056e-01 1.9900016040742705e+00 6.0354425730393631e-02 1.8237955245338575e+00 -4.4034967758671806e-01 -5.7262237441982111e-01 
        </Neuron>
        <Neuron NSynapses="19">
          -1.0310449218585347e+00 1.0066819588503322e+00 1.5096643551263049e+00 1.1753165810078980e+00 2.4751372963481208e-01 -7.6320705729097804e-01 -2.1278315599753368e+00 9.3846314638345474e-01 3.0592502834005492e-01 -1.4285926466357319e+00 -5.9416851611779142e-01 2.8830386503428634e-01 -4.2787923475745594e-03 -1.7093304040883279e+00 2.6223742954040530e+00 1.3818007244243491e+00 -3.4042082607883628e-01 -7.2637600912676903e-01 1.6396042880603947e+00 
        </Neuron>
        <Neuron NSynapses="19">
          8.4668129514435342e-01 5.0706819672256231e-01 2.1076245871808183e-01 -1.8928027488378625e+00 -5.8274580480449001e-01 1.9620817759245293e+00 1.0678277648791004e+00 9.1957816019417260e-01 -1.2079320405831218e-01 1.7583736686038862e+00 -1.7861197027419280e+00 -1.4119693167756984e+00 -2.4638329481563159e-01 -1.7343238971359556e+00 -9.5348572370782003e-01 1.5293798247484558e+00 -9.4099369311703929e-01 3.9585845955325792e-02 -2.6829059859899906e-01 
        </Neuron>
        <Neuron NSynapses="19">
          -1.9686550763310871e+00 -8.5200414560015114e-01 7.9136162621470141e-01 7.1760574393964816e-01 1.2702929182576168e+00 -7.9021359193433061e-01 1.2062242406282335e+00 -1.5936605699569222e+00 3.7293017183546739e-01 -2.1873888896895727e-01 -1.3472945100870406e+00 -1.5510898053159168e+00 -2.1781307768845135e+00 -3.9826490891899280e-01 9.5261814940947853e-01 -8.3489252913507961e-01 -1.3723101482297222e+00 -1.0759981722800487e+00 -1.2967791024646325e+00 
        </Neuron>
        <Neuron NSynapses="19">
          -1.7587561564205836e+00 1.3291307099726559e+00 -8.9065294983803922e-01 3.0375357114674539e-01 -7.2744849921964050e-01 2.6293234242674174e-01 1.7952816950967914e+00 1.4032031536981262e+00 -1.0018094848638264e+00 -1.5934620612986241e+00 -1.2606811457865088e+00 -8.5138959629891331e-01 -1.5946147701262190e+00 -1.3188335237716035e-02 9.2089745569402859e-01 1.4869764957935401e+00 -1.7959978866355111e-01 1.8209538335098555e-01 -6.6091867289477491e-01 
        </Neuron>
        <Neuron NSynapses="19">
          -1.5518577903756976e+00 1.2505710977107991e+00 9.4872065884675438e-01 -1.0302801517698872e+00 -1.5942157319261765e+00 6.0628766256598443e-01 1.5240629656589473e+00 2.3365530256049291e-01 -5.6649989177646146e-02 -2.8600447757619718e-02 1.7953728890967968e+00 1.0822473338549203e+00 8.5217663098922336e-01 4.0342300774941928e-02 3.5239791600965104e-02 -2.0529843081868948e-01 -1.8888671035503308e+00 1.3624988193624718e-01 -1.3968194050157912e+00 
        </Neuron>
      </Layer>
      <Layer Index="1" NNeurons="20">
        <Neuron NSynapses="1">
          1.9269155413948903e-02 
        </Neuron>
        <Neuron NSynapses="1">
          -4.1519205257665977e-03 
        </Neuron>
        <Neuron NSynapses="1">
          8.6631388802903525e-02 
        </Neuron>
        <Neuron NSynapses="1">
          -6.1565879783708088e-02 
        </Neuron>
        <Neuron NSynapses="1">
          5.0468772639580932e-02 
        </Neuron>
        <Neuron NSynapses="1">
          4.3289290729909807e-02 
        </Neuron>
        <Neuron NSynapses="1">
          -9.6868947817679515e-04 
        </Neuron>
        <Neuron NSynapses="1">
          2.8153500436349215e-02 
        </Neuron>
        <Neuron NSynapses="1">
          1.0883271143109899e-02 
        </Neuron>
        <Neuron NSynapses="1">
          6.6781115460786550e-03 
        </Neuron>
        <Neuron NSynapses="1">
          9.8078255451658367e-02 
        </Neuron>
        <Neuron NSynapses="1">
          -1.1807290870664740e-02 
        </Neuron>
        <Neuron NSynapses="1">
          -1.9507299672465259e-01 
        </Neuron>
        <Neuron NSynapses="1">
          4.1656870758267413e-02 
        </Neuron>
        <Neuron NSynapses="1">
          -5.0316178653736077e-01 
        </Neuron>
        <Neuron NSynapses="1">
          -5.3675529311608419e-02 
        </Neuron>
        <Neuron NSynapses="1">
          6.2355435304899632e-03 
        </Neuron>
        <Neuron NSynapses="1">
          4.4564868559152516e-02 
        </Neuron>
        <Neuron NSynapses="1">
          4.5905294136490388e-02 
        </Neuron>
        <Neuron NSynapses="1">
          5.2397332806412178e-01 
        </Neuron>
      </Layer>
      <Layer Index="2" NNeurons="1">
        <Neuron NSynapses="0"/>
      </Layer>
    </Layout>
  </Weights>
</MethodSetup>
